-2.834195792675018311e-01
-1.821997761726379395e-01
-2.362443953752517700e-01
-1.763737499713897705e-01
-1.864961385726928711e-01
-1.925854980945587158e-01
-2.328919023275375366e-01
-3.233580589294433594e-01
-2.424197942018508911e-01
-1.866197884082794189e-01
-1.997849494218826294e-01
-2.604236602783203125e-01
-1.950425058603286743e-01
-2.524001598358154297e-01
-1.358754187822341919e-01
-2.340775728225708008e-01
-2.836871445178985596e-01
-2.533344924449920654e-01
-2.565467357635498047e-01
-2.641084790229797363e-01
-2.173570841550827026e-01
-1.895145177841186523e-01
-1.163810491561889648e-01
-1.564574390649795532e-01
-2.434026598930358887e-01
-2.231711447238922119e-01
-2.143407464027404785e-01
-2.317687124013900757e-01
-2.065641134977340698e-01
-2.248212099075317383e-01
-1.945979446172714233e-01
-2.549338936805725098e-01
-2.697998881340026855e-01
-1.652182787656784058e-01
-1.924635022878646851e-01
-2.557590305805206299e-01
-6.148121133446693420e-02
-3.373356908559799194e-02
-3.154975175857543945e-02
-2.352551668882369995e-01
-1.338467001914978027e-01
-7.320803403854370117e-02
-7.116217166185379028e-02
-1.045043487101793289e-02
-8.822934329509735107e-02
-1.690006852149963379e-01
-9.928718209266662598e-02
-1.042648926377296448e-01
-7.566271722316741943e-02
2.684345282614231110e-02
-7.773496955633163452e-02
-1.944807916879653931e-01
-9.938330203294754028e-02
-8.667013049125671387e-02
-3.477736562490463257e-02
-7.912456989288330078e-02
-4.881805274635553360e-03
-1.732447296380996704e-01
-5.407368764281272888e-02
-5.274055153131484985e-02
4.537184536457061768e-02
-1.602080017328262329e-01
-9.683858603239059448e-02
1.105461567640304565e-01
-2.822092920541763306e-02
-5.161805078387260437e-02
-1.529124677181243896e-01
-9.909628331661224365e-02
-1.001077517867088318e-01
2.641947567462921143e-02
-1.585496217012405396e-02
-1.851269900798797607e-01
-1.301478892564773560e-01
-5.458079278469085693e-02
2.317040786147117615e-02
-2.437798865139484406e-02
-1.715445220470428467e-01
-6.896317005157470703e-02
5.485126003623008728e-02
-2.875354886054992676e-02
-1.422352641820907593e-01
-1.154207289218902588e-01
-1.155865341424942017e-01
5.132835358381271362e-02
-9.215795993804931641e-02
-1.232367604970932007e-01
-6.312078237533569336e-02
4.449922591447830200e-02
-5.983354151248931885e-02
2.251230180263519287e-02
-1.988273113965988159e-01
-9.791808575391769409e-02
1.133785955607891083e-02
-3.656692802906036377e-02
-1.980792433023452759e-01
-1.324600428342819214e-01
-6.265772040933370590e-03
-7.986738532781600952e-02
-3.471008688211441040e-02
-1.603320389986038208e-01
-9.847874194383621216e-02
-4.108054563403129578e-02
-4.289351031184196472e-02
3.859364986419677734e-02
-1.934377700090408325e-01
-1.104905530810356140e-01
4.028476402163505554e-02
4.788367450237274170e-02
-1.693944782018661499e-01
-6.578837335109710693e-02
-8.061967045068740845e-02
9.517126530408859253e-02
-1.895159631967544556e-01
-9.795957803726196289e-02
9.994157403707504272e-02
-3.667005524039268494e-02
-1.281895339488983154e-01
-1.068998202681541443e-01
6.967492401599884033e-02
-4.394137114286422729e-02
-1.418429464101791382e-01
-1.103670801967382431e-03
1.471098214387893677e-01
-1.775605976581573486e-01
-5.558068677783012390e-02
1.013049110770225525e-01
-6.804856238886713982e-04
-1.494783759117126465e-01
-8.635048568248748779e-02
-2.140503190457820892e-02
3.027090057730674744e-02
-1.669705361127853394e-01
6.049221009016036987e-02
1.476205140352249146e-01
-2.032981216907501221e-01
-9.788492461666464806e-04
-2.775831520557403564e-02
-4.482245072722434998e-03
-3.208526968955993652e-02
-1.607439965009689331e-01
3.226579353213310242e-02
1.465123295783996582e-01
-1.487850099802017212e-01
-7.647815346717834473e-02
3.790670260787010193e-02
-3.228665143251419067e-02
-1.804194003343582153e-01
2.685392089188098907e-02
1.296861022710800171e-01
-7.584984600543975830e-02
-8.695895969867706299e-02
-1.100245714187622070e-01
-8.050882816314697266e-02
-2.363506518304347992e-02
-1.952097117900848389e-01
2.060720510780811310e-02
1.279709637165069580e-01
-1.415227651596069336e-01
-6.944225728511810303e-02
-2.549050003290176392e-02
5.085151642560958862e-02
-1.554138362407684326e-01
-1.197601947933435440e-02
-2.681380510330200195e-02
3.669798141345381737e-03
-1.884388625621795654e-01
-6.765329837799072266e-02
6.388679891824722290e-02
3.659242391586303711e-02
-1.890345066785812378e-01
-5.183380469679832458e-02
3.472016379237174988e-02
-2.127856574952602386e-02
-2.335004955530166626e-01
-7.832589000463485718e-02
3.129763901233673096e-02
4.290321841835975647e-02
-2.057028561830520630e-01
7.586517184972763062e-02
8.235645294189453125e-02
-1.569051891565322876e-01
-8.281969279050827026e-02
-1.979819126427173615e-02
-7.159700617194175720e-03
-1.996005028486251831e-01
-6.592527031898498535e-02
5.476880446076393127e-02
5.566579475998878479e-02
-1.682569086551666260e-01
-1.203878410160541534e-02
-3.691816818900406361e-04
5.728648975491523743e-03
-1.986386626958847046e-01
-6.651951372623443604e-02
6.938646081835031509e-03
1.688847405603155494e-04
-2.422000616788864136e-01
