-1.629791706800460815e-01
-9.208698570728302002e-02
-1.286132484674453735e-01
-1.108051538467407227e-01
-1.399999409914016724e-01
-9.553006291389465332e-02
-1.226353421807289124e-01
-2.382141500711441040e-01
-1.766499429941177368e-01
-1.482141017913818359e-01
-1.351754516363143921e-01
-1.443896591663360596e-01
-6.916262954473495483e-02
-1.695219278335571289e-01
-4.441259428858757019e-02
-1.578463166952133179e-01
-2.737540006637573242e-01
-1.725998520851135254e-01
-1.761798560619354248e-01
-1.802090853452682495e-01
-1.271378546953201294e-01
-1.002174913883209229e-01
-2.712855674326419830e-02
-1.111771762371063232e-01
-1.758337467908859253e-01
-1.579987108707427979e-01
-1.406278759241104126e-01
-1.523552536964416504e-01
-1.220525652170181274e-01
-1.507961750030517578e-01
-9.777104109525680542e-02
-1.829289644956588745e-01
-1.690230220556259155e-01
-9.120824933052062988e-02
-1.153796613216400146e-01
-1.625874638557434082e-01
3.273567929863929749e-02
4.269608110189437866e-02
1.238285452127456665e-01
-6.178258359432220459e-02
-3.349453955888748169e-02
1.605151407420635223e-02
4.642596095800399780e-02
1.205769702792167664e-01
4.877817258238792419e-02
-1.304193437099456787e-01
-1.768779382109642029e-02
2.712940983474254608e-02
3.902577608823776245e-02
1.494345813989639282e-01
6.192385405302047729e-02
-1.083452105522155762e-01
1.783023774623870850e-02
7.180755585432052612e-02
6.646280735731124878e-02
7.409168779850006104e-02
1.334890127182006836e-01
-1.072722449898719788e-01
7.899725437164306641e-02
1.015628594905138016e-02
2.189007848501205444e-01
-5.337831377983093262e-02
-3.098602220416069031e-02
2.629353702068328857e-01
7.698854804039001465e-02
5.887267738580703735e-02
-8.326298743486404419e-02
-6.650169193744659424e-02
-1.764795370399951935e-02
1.941606253385543823e-01
7.634785771369934082e-02
-1.080587357282638550e-01
-6.677109003067016602e-02
3.680979833006858826e-02
1.744046956300735474e-01
1.222373321652412415e-01
-1.129628270864486694e-01
2.026905864477157593e-02
2.354976683855056763e-01
8.948741853237152100e-02
-7.885409891605377197e-02
-3.934467211365699768e-02
-1.928702555596828461e-02
2.195149511098861694e-01
8.032321929931640625e-02
-6.171304732561111450e-02
9.727728553116321564e-03
2.065319120883941650e-01
5.397842451930046082e-02
1.868647485971450806e-01
-8.497006446123123169e-02
-2.126826904714107513e-02
1.612510532140731812e-01
7.166009396314620972e-02
-5.739318206906318665e-02
-2.210362441837787628e-02
1.327499747276306152e-01
4.396772384643554688e-02
9.711900353431701660e-02
-8.744481205940246582e-02
-4.595830291509628296e-02
1.144166737794876099e-01
9.144565463066101074e-02
1.785230785608291626e-01
-1.035838052630424500e-01
-1.883087679743766785e-02
1.870232075452804565e-01
1.853188574314117432e-01
-7.731771469116210938e-02
-9.056777693331241608e-03
-7.692549377679824829e-02
2.072843462228775024e-01
-5.773079022765159607e-02
1.548747997730970383e-02
2.683372497558593750e-01
7.872335612773895264e-02
-6.064294651150703430e-02
-5.818219110369682312e-02
2.135845273733139038e-01
4.733251035213470459e-02
-3.011784702539443970e-02
5.425979197025299072e-02
2.581366598606109619e-01
-1.113587338477373123e-02
-4.273180291056632996e-02
2.719638943672180176e-01
1.508841216564178467e-01
-5.632658675312995911e-02
-1.636085659265518188e-02
1.116022095084190369e-01
1.669791787862777710e-01
-5.708874017000198364e-02
9.624633938074111938e-02
2.262258529663085938e-01
2.137018181383609772e-02
9.913920611143112183e-02
9.067565202713012695e-02
1.656042188405990601e-01
9.798170626163482666e-02
-1.012585461139678955e-01
2.302881516516208649e-02
2.895221412181854248e-01
-8.850056678056716919e-03
1.943460293114185333e-02
1.781500726938247681e-01
1.790581643581390381e-01
-6.138124689459800720e-02
1.837233267724514008e-02
2.812698781490325928e-01
-3.952783066779375076e-03
7.952321320772171021e-02
2.211421262472867966e-03
9.467235207557678223e-02
1.270612925291061401e-01
-8.999287337064743042e-02
3.872834518551826477e-02
2.538139224052429199e-01
-1.056749187409877777e-02
-5.989818833768367767e-03
1.667948514223098755e-01
2.365973591804504395e-01
-5.391801148653030396e-02
1.203085929155349731e-01
1.205766201019287109e-01
1.323734968900680542e-01
-8.385312557220458984e-02
5.698620155453681946e-02
2.281954139471054077e-01
1.889236867427825928e-01
-4.822536185383796692e-02
-1.803646155167371035e-04
1.702733933925628662e-01
8.017456531524658203e-02
-6.827095150947570801e-02
8.791049942374229431e-03
1.442732661962509155e-01
1.954575181007385254e-01
-7.845374941825866699e-02
1.811269074678421021e-01
1.505973786115646362e-01
-1.858475245535373688e-02
2.710296213626861572e-02
1.167191118001937866e-01
1.009451523423194885e-01
-7.348401099443435669e-02
1.332556270062923431e-02
1.865827590227127075e-01
2.237255275249481201e-01
-6.143348664045333862e-02
1.284973621368408203e-01
1.567742824554443359e-01
1.358598023653030396e-01
-7.228983193635940552e-02
4.664060845971107483e-02
1.599200665950775146e-01
1.404172927141189575e-01
-6.757113337516784668e-02
