-2.301667928695678711e-01
-2.094844430685043335e-01
-2.085513323545455933e-01
-1.162345260381698608e-01
-1.808138638734817505e-01
-1.715227663516998291e-01
-1.754688620567321777e-01
-2.778543233871459961e-01
-1.886477321386337280e-01
-1.933334618806838989e-01
-1.415157020092010498e-01
-3.149295449256896973e-01
-1.565702855587005615e-01
-3.191514611244201660e-01
-1.059991270303726196e-01
-1.899167150259017944e-01
-2.955496013164520264e-01
-2.110544741153717041e-01
-2.245141863822937012e-01
-2.605608105659484863e-01
-1.532279998064041138e-01
-1.317836195230484009e-01
-4.762800037860870361e-02
-1.318858563899993896e-01
-2.416662424802780151e-01
-2.494363784790039062e-01
-2.266390174627304077e-01
-2.685030698776245117e-01
-1.349375098943710327e-01
-3.005916774272918701e-01
-1.688185930252075195e-01
-2.912250757217407227e-01
-1.941323280334472656e-01
-1.862098872661590576e-01
-1.799059361219406128e-01
-2.703166306018829346e-01
-4.546596482396125793e-02
-9.040724486112594604e-03
-1.558941137045621872e-02
-6.241248548030853271e-02
-7.241751998662948608e-02
-1.024476960301399231e-01
-4.025267809629440308e-02
-5.337324738502502441e-02
-8.067097514867782593e-02
-1.038831025362014771e-01
-7.682970166206359863e-02
-7.392171770334243774e-02
-4.918852820992469788e-02
7.914545387029647827e-02
-1.149098426103591919e-01
-9.649997204542160034e-02
-8.702032268047332764e-02
-9.702151268720626831e-02
-4.637161642313003540e-02
-7.615544646978378296e-02
2.315619494765996933e-03
-9.639949351549148560e-02
2.394857257604598999e-02
-7.942001521587371826e-02
9.011799842119216919e-02
-3.809838742017745972e-02
-6.244275346398353577e-02
1.105371043086051941e-01
-1.382513716816902161e-02
-6.305512040853500366e-02
-7.902388274669647217e-02
-5.546738579869270325e-02
-1.046372205018997192e-01
3.182206675410270691e-02
-2.381613850593566895e-02
-1.001897528767585754e-01
-8.747449517250061035e-02
-7.124032080173492432e-02
3.153964504599571228e-02
-5.406469479203224182e-02
-1.028091162443161011e-01
-2.324863523244857788e-02
1.428988277912139893e-01
-1.747826859354972839e-02
-5.358976498246192932e-02
-2.063765004277229309e-02
-5.755032598972320557e-02
2.571373991668224335e-02
-1.193791441619396210e-02
-5.826515331864356995e-02
-9.866883605718612671e-02
4.985731095075607300e-02
-8.302116394042968750e-02
4.374475032091140747e-02
-9.751805663108825684e-02
-6.895529478788375854e-02
2.230705693364143372e-02
-2.624104358255863190e-02
-6.532023102045059204e-02
-9.863714128732681274e-02
5.775402113795280457e-02
-1.032207980751991272e-01
-3.661978989839553833e-02
-9.039464592933654785e-02
-9.908933937549591064e-02
-3.190425457432866096e-03
-3.423865884542465210e-02
2.708485908806324005e-02
-8.810189366340637207e-02
-6.208185851573944092e-02
8.653783798217773438e-02
5.125052109360694885e-02
-8.033437281847000122e-02
-8.349969238042831421e-02
-1.037559583783149719e-01
9.610547125339508057e-02
-6.287840008735656738e-02
-6.271456182003021240e-02
1.522889435291290283e-01
4.176605120301246643e-02
-6.077868863940238953e-02
-6.679943948984146118e-02
8.522953093051910400e-02
-2.624213695526123047e-02
-3.851315006613731384e-02
-1.065031345933675766e-02
6.810075789690017700e-02
-5.580490920692682266e-03
-2.151110209524631500e-02
1.905024796724319458e-01
-5.847812280990183353e-04
-4.817896708846092224e-02
-9.281594306230545044e-02
-1.933437585830688477e-02
3.472653031349182129e-02
-5.360621958971023560e-02
3.022740967571735382e-02
7.838062942028045654e-02
7.440106943249702454e-03
-1.984626799821853638e-02
-2.357908710837364197e-02
-3.741894662380218506e-02
-2.026016823947429657e-03
-9.845236688852310181e-02
-1.644184626638889313e-02
1.785533577203750610e-01
-4.578707274049520493e-03
-2.879853919148445129e-02
7.801804691553115845e-02
-2.640484273433685303e-02
-4.532048478722572327e-02
-1.325804553925991058e-02
1.662477254867553711e-01
-2.577973995357751846e-03
-5.372372269630432129e-02
-8.488295972347259521e-02
-4.762798920273780823e-02
-1.333961845375597477e-03
-8.644682914018630981e-02
-2.546236477792263031e-02
1.123624444007873535e-01
1.289491262286901474e-02
-3.375975787639617920e-02
2.606388740241527557e-02
6.968629360198974609e-02
-3.789519146084785461e-02
2.523398213088512421e-02
-6.201081443578004837e-03
5.507712066173553467e-02
-8.447834104299545288e-02
-4.214143007993698120e-02
4.063485935330390930e-02
4.968767613172531128e-02
-4.456669464707374573e-02
-8.203935623168945312e-02
1.458956114947795868e-02
-3.595060110092163086e-02
-5.310565233230590820e-02
-1.366177853196859360e-02
1.515798829495906830e-02
5.285478755831718445e-02
-6.679170578718185425e-02
6.308019161224365234e-02
4.082900285720825195e-02
-1.290387474000453949e-02
-8.068650215864181519e-02
-5.936491489410400391e-02
-3.690385818481445312e-02
-5.249198526144027710e-02
-4.406363889575004578e-02
2.783172205090522766e-02
3.781929612159729004e-02
-5.820105597376823425e-02
4.482768476009368896e-02
7.700558751821517944e-02
-4.020748287439346313e-02
-6.149806454777717590e-02
-4.627308622002601624e-02
1.179700810462236404e-02
-2.211965620517730713e-02
-5.397783964872360229e-02
