-1.040424853563308716e-01
-8.626854419708251953e-02
1.608787663280963898e-02
-5.245683714747428894e-02
-5.034276098012924194e-02
-4.675335809588432312e-02
-5.351381842046976089e-03
-1.440235693007707596e-02
-9.547947347164154053e-02
-1.025038585066795349e-01
-8.239587396383285522e-02
-3.065845184028148651e-02
-9.173875302076339722e-02
-3.641697764396667480e-02
-1.614470481872558594e-01
-1.127274259924888611e-01
-9.813855588436126709e-02
-1.281423270702362061e-01
-6.684343516826629639e-02
2.788984589278697968e-02
-6.057690829038619995e-02
-8.637308329343795776e-02
-1.321687400341033936e-01
-6.586803495883941650e-02
-6.622169911861419678e-02
-3.210027143359184265e-02
-1.684373021125793457e-01
-2.776220999658107758e-02
-1.064438447356224060e-01
-4.234630614519119263e-03
-1.401633769273757935e-01
-3.773513808846473694e-02
-7.515466213226318359e-02
-9.260546416044235229e-02
-3.013359382748603821e-02
-2.282010950148105621e-02
8.228114247322082520e-02
2.960553206503391266e-02
1.027719601988792419e-01
1.876219809055328369e-01
-1.434828937053680420e-01
-8.503624796867370605e-02
4.795634746551513672e-02
8.465553820133209229e-02
9.515688754618167877e-03
8.044003508985042572e-03
-1.224714666604995728e-01
-1.056001558899879456e-01
2.304632402956485748e-02
-2.389303222298622131e-02
4.302174970507621765e-02
-2.807726524770259857e-02
-2.177756577730178833e-01
-5.961789563298225403e-02
4.908734560012817383e-02
3.743766248226165771e-02
8.576542139053344727e-02
1.878188177943229675e-02
-3.926458954811096191e-02
9.297709167003631592e-02
6.769316643476486206e-02
5.672012921422719955e-04
-7.141865789890289307e-02
1.957021886482834816e-03
-1.289603579789400101e-02
4.623606428503990173e-02
-5.213422235101461411e-03
-3.070437349379062653e-02
1.409844309091567993e-01
-8.373942226171493530e-03
3.762432560324668884e-02
-1.128621865063905716e-02
2.298114448785781860e-02
1.865945570170879364e-02
5.689751822501420975e-03
9.450858086347579956e-02
-2.651115693151950836e-02
-6.714072823524475098e-02
1.344566978514194489e-02
9.666997939348220825e-02
-2.273390069603919983e-03
5.927743017673492432e-02
2.573487535119056702e-02
-1.724794693291187286e-02
-4.322430491447448730e-02
-2.232806384563446045e-02
-1.163849979639053345e-01
6.141505762934684753e-02
7.386361062526702881e-02
7.432971894741058350e-02
-3.181160194799304008e-03
7.490998506546020508e-02
9.976105391979217529e-02
1.565654873847961426e-01
4.164129868149757385e-02
-4.111199826002120972e-02
1.498409081250429153e-03
1.902192085981369019e-02
4.535912722349166870e-02
-1.831523329019546509e-02
-1.118658483028411865e-01
9.258118271827697754e-02
9.776160120964050293e-02
6.228322908282279968e-02
1.479083392769098282e-02
6.159796379506587982e-03
2.702430449426174164e-02
6.568249315023422241e-02
-7.369018276222050190e-04
8.990157395601272583e-02
1.576356440782546997e-01
9.223348647356033325e-02
1.311818137764930725e-02
-5.919475480914115906e-02
-3.060687740799039602e-04
7.781605422496795654e-02
8.154156384989619255e-04
3.643864393234252930e-02
-2.987667359411716461e-02
-2.706466615200042725e-02
-1.519451383501291275e-02
1.493945717811584473e-01
1.069031134247779846e-01
2.892007865011692047e-02
4.766867309808731079e-02
2.107122726738452911e-02
1.047261431813240051e-01
-1.325682550668716431e-02
1.118468418717384338e-01
-4.681237507611513138e-03
1.344175834674388170e-04
-1.193027012050151825e-03
1.370295584201812744e-01
1.643379181623458862e-01
9.735873341560363770e-02
3.341955319046974182e-02
2.887190319597721100e-02
4.879038780927658081e-02
7.210644334554672241e-02
-3.105248883366584778e-02
4.569705575704574585e-02
5.738500133156776428e-02
-2.578285522758960724e-03
2.926584705710411072e-02
6.455926597118377686e-02
2.014584392309188843e-01
3.414585813879966736e-02
1.414461731910705566e-01
5.863925907760858536e-03
-1.203626673668622971e-02
-3.342279791831970215e-02
4.814903065562248230e-02
-4.718894883990287781e-02
-6.433314085006713867e-02
-3.973370790481567383e-02
1.560597866773605347e-01
1.439711153507232666e-01
4.324622452259063721e-02
4.417308419942855835e-02
1.585298329591751099e-01
6.481602787971496582e-02
1.490549370646476746e-02
1.004978716373443604e-01
1.018849834799766541e-01
6.957986950874328613e-02
-3.904373385012149811e-03
-3.343383781611919403e-03
8.930798619985580444e-02
1.321743577718734741e-01
4.831897094845771790e-03
-5.958401039242744446e-02
7.506462931632995605e-02
5.923746153712272644e-02
7.986445724964141846e-02
1.770942658185958862e-02
9.913995116949081421e-02
1.393567919731140137e-01
1.386962365359067917e-02
8.634509891271591187e-02
1.306201070547103882e-01
7.452591671608388424e-04
-1.853856071829795837e-02
5.597900971770286560e-02
6.737111508846282959e-02
9.729194641113281250e-02
1.284162253141403198e-01
1.525020897388458252e-01
1.034864857792854309e-01
1.684620976448059082e-02
1.048257797956466675e-01
4.511019587516784668e-02
8.866832405328750610e-02
-1.850950531661510468e-02
-4.866934567689895630e-02
5.061946809291839600e-03
4.734800383448600769e-02
7.944355905055999756e-02
