-1.778188794851303101e-01
-1.911944150924682617e-01
-2.013769745826721191e-01
-1.118451505899429321e-01
-1.549480110406875610e-01
-1.661091595888137817e-01
-1.213282272219657898e-01
-2.542040646076202393e-01
-2.402935028076171875e-01
-1.710481196641921997e-01
-1.238698735833168030e-01
-2.780795097351074219e-01
-1.271410286426544189e-01
-2.492346614599227905e-01
-1.155441924929618835e-01
-2.090566158294677734e-01
-2.943196594715118408e-01
-2.205590158700942993e-01
-1.809358894824981689e-01
-2.257377654314041138e-01
-1.599839627742767334e-01
-6.254593282938003540e-02
-5.531815811991691589e-02
-1.346262693405151367e-01
-2.169264107942581177e-01
-2.700443565845489502e-01
-2.776418328285217285e-01
-2.069893032312393188e-01
-1.152658164501190186e-01
-2.594090700149536133e-01
-1.611446291208267212e-01
-2.641812264919281006e-01
-1.734050661325454712e-01
-1.521193534135818481e-01
-1.679639220237731934e-01
-2.687825262546539307e-01
-1.482167653739452362e-02
-2.923158183693885803e-02
3.572879359126091003e-02
-9.193199872970581055e-02
-9.034492820501327515e-02
6.546182092279195786e-03
-4.743394255638122559e-02
6.830136291682720184e-03
-2.277964539825916290e-02
-1.342763006687164307e-01
-6.738717108964920044e-02
-5.555995553731918335e-02
-2.720373310148715973e-02
1.262619495391845703e-01
-4.606134444475173950e-02
-1.352294683456420898e-01
-7.227622717618942261e-02
-3.692597895860671997e-02
-6.201484054327011108e-02
-4.845270141959190369e-02
4.039749875664710999e-02
-1.353940218687057495e-01
1.704325899481773376e-02
-1.368933450430631638e-02
1.363508999347686768e-01
-7.733771950006484985e-02
-7.737007737159729004e-02
2.226050496101379395e-01
8.339150226674973965e-04
-1.659799739718437195e-02
-1.149703711271286011e-01
-6.738787144422531128e-02
-5.627948790788650513e-02
1.401708424091339111e-01
3.307988494634628296e-02
-1.078940033912658691e-01
-6.381661444902420044e-02
8.783073164522647858e-03
1.615953594446182251e-01
3.856881707906723022e-02
-1.456223577260971069e-01
-4.265004768967628479e-02
2.090935707092285156e-01
-5.991149693727493286e-03
-9.125714004039764404e-02
-6.267624348402023315e-02
-8.122472465038299561e-02
1.191335469484329224e-01
1.937665976583957672e-02
-8.354261517524719238e-02
-6.131783127784729004e-02
1.294544041156768799e-01
-3.392433747649192810e-02
9.712792932987213135e-02
-1.242419183254241943e-01
-4.704917594790458679e-02
1.254411786794662476e-01
-1.718916371464729309e-02
-9.098955988883972168e-02
-1.027828007936477661e-01
9.484246373176574707e-02
-2.001151815056800842e-02
-8.599251508712768555e-03
-1.220635026693344116e-01
-9.239447116851806641e-02
-2.139408327639102936e-02
1.970120891928672791e-02
6.868892908096313477e-02
-1.127791851758956909e-01
-3.669983893632888794e-02
1.667406857013702393e-01
4.074293002486228943e-02
-9.729390591382980347e-02
-2.974834991618990898e-03
-9.157011657953262329e-02
1.678871512413024902e-01
-8.811728656291961670e-02
-7.876400649547576904e-02
2.898022830486297607e-01
1.041737478226423264e-02
-7.088873535394668579e-02
-8.110380172729492188e-02
1.699338257312774658e-01
-1.036645192652940750e-02
-5.400973558425903320e-02
-8.195487782359123230e-03
1.553062200546264648e-01
-2.884236723184585571e-02
-1.078010629862546921e-02
2.620194554328918457e-01
7.082474976778030396e-02
-7.201831787824630737e-02
-8.286936581134796143e-02
4.531385004520416260e-02
1.367489099502563477e-01
-9.250079095363616943e-02
1.449844520539045334e-02
1.114326268434524536e-01
-1.452865451574325562e-02
4.359602462500333786e-03
2.618172205984592438e-02
2.619999833405017853e-02
4.000626876950263977e-02
-1.221069619059562683e-01
-1.691822148859500885e-02
2.404461652040481567e-01
-2.517680078744888306e-02
-5.203004181385040283e-02
1.079353317618370056e-01
-2.121591940522193909e-02
-8.252739906311035156e-02
-8.326581679284572601e-03
2.536443173885345459e-01
-8.541981689631938934e-03
-2.074767649173736572e-02
-5.303024128079414368e-02
-2.810070104897022247e-02
4.471468552947044373e-02
-1.165467947721481323e-01
3.919991198927164078e-03
1.609179079532623291e-01
-2.519017457962036133e-02
-2.157554589211940765e-02
1.471941079944372177e-02
1.059561967849731445e-01
-8.851420134305953979e-02
9.839671105146408081e-02
3.582480549812316895e-02
1.091944128274917603e-01
-1.217895597219467163e-01
3.370571509003639221e-02
5.453749746084213257e-02
6.430941075086593628e-02
-6.882358342409133911e-02
-3.223266080021858215e-02
8.141129463911056519e-02
1.821145787835121155e-02
-9.077965468168258667e-02
-2.932008914649486542e-02
5.686710029840469360e-02
9.789561480283737183e-02
-8.480934053659439087e-02
9.969673305749893188e-02
8.060934394598007202e-02
-3.169459104537963867e-02
-7.367905229330062866e-02
-3.136666258797049522e-03
1.740776374936103821e-02
-1.028929501771926880e-01
-3.284778445959091187e-02
5.260545015335083008e-02
6.643972545862197876e-02
-7.471911609172821045e-02
9.939340502023696899e-02
9.553288668394088745e-02
4.708242788910865784e-02
-1.046260744333267212e-01
1.852897740900516510e-02
4.798648506402969360e-02
3.028691746294498444e-02
-8.362757414579391479e-02
