-5.775471404194831848e-02
1.793906278908252716e-02
5.832614749670028687e-02
-8.158610016107559204e-02
-4.655566066503524780e-02
-7.056606560945510864e-02
1.472633238881826401e-02
-9.157603606581687927e-03
-2.904796786606311798e-02
-9.723298251628875732e-02
-1.014886796474456787e-01
-5.024915561079978943e-03
-6.274458765983581543e-02
-9.540787898004055023e-03
-1.413322538137435913e-01
-8.875918388366699219e-02
2.952398732304573059e-02
-6.170608103275299072e-02
-1.841329038143157959e-02
-4.298318549990653992e-02
-7.838588953018188477e-02
-8.488332480192184448e-02
-8.987390995025634766e-02
6.823332980275154114e-03
-2.444447018206119537e-02
1.543545257300138474e-02
-2.652505971491336823e-02
6.304632872343063354e-02
-1.063975468277931213e-01
-4.079639539122581482e-02
-9.834574162960052490e-02
-5.384654551744461060e-02
-1.104435101151466370e-01
-1.134663820266723633e-01
-6.819250993430614471e-03
3.439455467741936445e-04
-1.051945146173238754e-02
-7.798445224761962891e-02
3.904281184077262878e-02
-3.030952997505664825e-02
3.169162571430206299e-02
-3.113932348787784576e-02
6.370044779032468796e-03
9.827909991145133972e-03
-4.204385727643966675e-02
-5.612059682607650757e-02
-2.304196730256080627e-02
-4.816494509577751160e-02
-1.106113940477371216e-01
-8.593572676181793213e-02
9.221421927213668823e-02
-5.721636489033699036e-02
-1.401872374117374420e-02
-4.545274714473634958e-04
-3.236911073327064514e-02
-3.323958069086074829e-02
8.731680363416671753e-02
-5.118378251791000366e-02
3.894322738051414490e-02
6.801670044660568237e-02
3.503898903727531433e-02
-3.069067560136318207e-02
1.450377888977527618e-02
-7.818944752216339111e-02
8.789135515689849854e-02
-8.242866955697536469e-03
-4.447467997670173645e-02
2.142210491001605988e-02
5.803938582539558411e-02
-6.121908873319625854e-02
1.203842740505933762e-02
-4.805180802941322327e-02
6.576640880666673183e-04
-5.997000262141227722e-03
-1.443995814770460129e-02
7.084962725639343262e-02
-3.480400517582893372e-02
-6.695247255265712738e-03
-1.606981083750724792e-02
3.124721348285675049e-02
-2.785784751176834106e-02
1.917556673288345337e-02
5.302344635128974915e-02
-1.704985499382019043e-01
-1.264631003141403198e-02
-4.454872757196426392e-02
2.571065165102481842e-02
-4.309875518083572388e-02
3.588506206870079041e-02
1.349842101335525513e-01
-4.676185175776481628e-02
-5.375654902309179306e-03
1.482750326395034790e-01
1.751152724027633667e-01
-3.461605310440063477e-02
5.546244792640209198e-03
-7.738588750362396240e-02
-1.088398601859807968e-02
5.151729658246040344e-02
-4.797148331999778748e-02
1.017373986542224884e-02
8.674664795398712158e-02
4.999893158674240112e-02
2.643722482025623322e-02
-4.503551125526428223e-02
-1.458594389259815216e-02
-2.662086393684148788e-03
-1.383676473051309586e-02
-3.771914541721343994e-02
-5.417296197265386581e-03
7.119665388017892838e-03
1.164528578519821167e-01
-2.370448037981987000e-02
3.823031857609748840e-02
-1.991409249603748322e-02
3.689280152320861816e-02
-2.725997194647789001e-02
4.854998365044593811e-02
-1.045104637742042542e-01
9.939928352832794189e-02
-4.415760561823844910e-02
6.206749379634857178e-02
1.185514479875564575e-01
-3.289928194135427475e-03
3.458220884203910828e-02
-1.458771713078022003e-02
1.697282046079635620e-01
-2.641279995441436768e-02
1.615098863840103149e-02
7.940017431974411011e-02
-5.250529572367668152e-02
-2.192675322294235229e-02
3.993050754070281982e-02
1.384202241897583008e-01
-1.532416418194770813e-02
5.313790403306484222e-03
3.418282419443130493e-02
6.208551675081253052e-02
7.183324545621871948e-02
-5.307913199067115784e-02
8.255992829799652100e-02
2.622599340975284576e-02
-8.458194322884082794e-03
4.188702255487442017e-02
3.732561692595481873e-02
1.414942443370819092e-01
-4.342666640877723694e-02
8.974480628967285156e-02
-2.562084235250949860e-02
-1.528434269130229950e-02
-1.076304614543914795e-01
4.469550773501396179e-02
-8.003219217061996460e-02
-1.056783422827720642e-01
-5.821081250905990601e-02
7.554976642131805420e-02
1.671158373355865479e-01
2.618653001263737679e-03
6.674709916114807129e-02
2.218679338693618774e-01
6.427615135908126831e-02
-3.155435621738433838e-02
1.425297707319259644e-01
1.705926954746246338e-01
8.017104864120483398e-02
-3.814606368541717529e-02
-7.016020361334085464e-03
5.192364007234573364e-02
1.784272193908691406e-01
-3.781481832265853882e-02
8.086460642516613007e-03
1.905996352434158325e-03
-2.223699167370796204e-02
-2.538160979747772217e-02
1.622871309518814087e-02
1.220110952854156494e-01
4.553139954805374146e-02
-3.111924231052398682e-02
1.111770570278167725e-01
1.784998923540115356e-01
-7.242039311677217484e-03
-8.064542897045612335e-03
1.305064857006072998e-01
-2.061622776091098785e-02
-2.385449782013893127e-02
1.353890914469957352e-02
1.639239192008972168e-01
6.114970147609710693e-02
-4.270013049244880676e-02
8.376087248325347900e-02
1.263034790754318237e-01
1.283724904060363770e-01
-2.914957888424396515e-02
-5.519872903823852539e-02
7.335874438285827637e-02
1.844531670212745667e-02
-3.520911559462547302e-02
