-9.408367425203323364e-02
-1.199879124760627747e-01
-7.651624828577041626e-02
-7.651324570178985596e-02
-1.074854508042335510e-01
-8.816682547330856323e-02
-6.925718486309051514e-02
-1.107361912727355957e-01
-8.208303153514862061e-02
-1.423222124576568604e-01
-1.232453957200050354e-01
-1.166590750217437744e-01
-1.737352758646011353e-01
-1.416257619857788086e-01
-1.752960979938507080e-01
-1.810590177774429321e-01
-8.783980458974838257e-02
-2.247948199510574341e-01
-1.001233160495758057e-01
-1.230115890502929688e-01
-9.487760812044143677e-02
-1.304226964712142944e-01
-1.804445981979370117e-01
-1.065557077527046204e-01
-1.264460980892181396e-01
-6.648922711610794067e-02
-1.589975506067276001e-01
-1.481125205755233765e-01
-1.149680390954017639e-01
-1.311802119016647339e-01
-1.685795485973358154e-01
-1.943247020244598389e-01
-1.267483532428741455e-01
-1.619821786880493164e-01
-1.614711433649063110e-01
-9.646412730216979980e-02
3.854396939277648926e-02
1.231427863240242004e-01
1.301687583327293396e-02
1.651275902986526489e-01
-1.618234999477863312e-02
5.469600483775138855e-02
1.080981921404600143e-02
5.354279652237892151e-03
-1.983351632952690125e-02
2.073119767010211945e-02
-9.801019728183746338e-02
-5.139134079217910767e-02
-4.563225805759429932e-02
-7.286971434950828552e-03
-2.509642392396926880e-02
-3.485593572258949280e-02
-6.651964038610458374e-02
1.488445210270583630e-03
-3.551023080945014954e-02
-7.055377587676048279e-03
3.192704170942306519e-03
2.916726050898432732e-03
5.492984503507614136e-02
6.415735185146331787e-02
1.976571511477231979e-03
1.682396605610847473e-02
1.260486897081136703e-02
-3.119744732975959778e-02
-3.018902428448200226e-02
-5.092301592230796814e-02
-1.118534523993730545e-02
2.402799390256404877e-02
-1.580947265028953552e-02
-3.437273204326629639e-02
-1.253577787429094315e-02
-1.023215893656015396e-02
-3.208768321201205254e-03
-1.825993694365024567e-02
-1.312906388193368912e-03
-3.446640819311141968e-02
-4.172648862004280090e-02
-3.306144103407859802e-02
1.321225240826606750e-02
3.184200078248977661e-02
-1.427698135375976562e-02
-1.822526939213275909e-02
-1.414257474243640900e-02
-4.566197097301483154e-02
-8.346571773290634155e-02
-2.738070301711559296e-02
-1.702631451189517975e-02
-1.091729477047920227e-02
1.551206409931182861e-02
8.612626697868108749e-04
-1.680979691445827484e-02
7.554067671298980713e-02
1.228647120296955109e-02
5.162909254431724548e-02
3.861967101693153381e-02
-6.308622658252716064e-02
7.625418365933001041e-04
-8.423549123108386993e-03
-1.976152323186397552e-02
-2.485670335590839386e-02
-4.198908433318138123e-02
4.211003705859184265e-02
3.936938568949699402e-02
1.661305897869169712e-03
2.075605839490890503e-02
4.559658840298652649e-02
7.540619000792503357e-03
8.349101059138774872e-03
2.790874103084206581e-03
5.536127835512161255e-02
1.730320602655410767e-02
1.999328285455703735e-02
2.252294309437274933e-02
-1.219325233250856400e-02
-1.497991499491035938e-03
7.523674983531236649e-03
-1.354434713721275330e-02
2.105290256440639496e-02
-2.263384126126766205e-02
-2.034264802932739258e-02
-1.973827369511127472e-02
1.603279635310173035e-02
1.013899338431656361e-03
3.569193556904792786e-02
2.396808005869388580e-02
-4.957341589033603668e-03
-2.148323459550738335e-03
-2.334597520530223846e-02
2.272359561175107956e-04
-2.971102111041545868e-02
-3.244254970923066139e-03
-5.499841645359992981e-03
1.256523579359054565e-01
6.324235349893569946e-02
1.091881692409515381e-01
3.532791743054986000e-03
5.200524814426898956e-03
-2.999773994088172913e-02
2.493681386113166809e-03
-4.423146694898605347e-02
1.403784751892089844e-02
2.337886544410139322e-04
8.039372041821479797e-03
-2.214829064905643463e-02
1.313881482928991318e-02
2.218186855316162109e-02
1.847963035106658936e-02
3.633209317922592163e-02
-2.171576023101806641e-03
-9.826591238379478455e-03
-1.111960411071777344e-01
-6.602608412504196167e-02
-1.136230602860450745e-01
-6.402032822370529175e-02
-5.993073806166648865e-02
1.217931807041168213e-01
2.867815457284450531e-02
2.992283739149570465e-02
5.587211251258850098e-02
-1.368757570162415504e-03
2.823292743414640427e-03
2.039524912834167480e-02
-1.096050068736076355e-02
4.875701293349266052e-02
1.316798757761716843e-02
-6.602075882256031036e-03
-4.670163244009017944e-02
4.365612752735614777e-03
-5.288705229759216309e-03
-2.604859881103038788e-03
1.862237975001335144e-02
2.706064097583293915e-02
2.617980167269706726e-02
1.012802347540855408e-01
1.706444285809993744e-02
-2.369705215096473694e-02
4.527594149112701416e-02
3.806071588769555092e-03
7.027521729469299316e-03
1.355877332389354706e-02
1.305335294455289841e-02
1.168391853570938110e-02
5.934096500277519226e-02
5.038254708051681519e-02
9.854308515787124634e-02
1.225241366773843765e-02
5.257761571556329727e-03
7.048283237963914871e-03
2.784492820501327515e-02
-1.168815698474645615e-02
-2.210980653762817383e-02
-4.475814104080200195e-02
-2.881267480552196503e-02
1.315077207982540131e-02
1.676568388938903809e-02
1.211997121572494507e-03
9.339158982038497925e-02
